digraph Tree {
node [shape=box] ;
0 [label="X[3] <= 4.685\nmse = 0.53\nsamples = 560\nvalue = 0.015"] ;
1 [label="X[3] <= 2.71\nmse = 0.281\nsamples = 388\nvalue = -0.266"] ;
0 -> 1 [labeldistance=2.5, labelangle=45, headlabel="True"] ;
2 [label="X[2] <= 0.03\nmse = 0.312\nsamples = 229\nvalue = -0.445"] ;
1 -> 2 ;
3 [label="X[3] <= 0.145\nmse = 0.458\nsamples = 14\nvalue = -1.016"] ;
2 -> 3 ;
4 [label="mse = 0.0\nsamples = 3\nvalue = 0.0"] ;
3 -> 4 ;
5 [label="mse = 0.225\nsamples = 11\nvalue = -1.294"] ;
3 -> 5 ;
6 [label="X[1] <= 11.065\nmse = 0.28\nsamples = 215\nvalue = -0.408"] ;
2 -> 6 ;
7 [label="mse = 0.198\nsamples = 150\nvalue = -0.297"] ;
6 -> 7 ;
8 [label="mse = 0.374\nsamples = 65\nvalue = -0.665"] ;
6 -> 8 ;
9 [label="X[1] <= 10.82\nmse = 0.124\nsamples = 159\nvalue = -0.009"] ;
1 -> 9 ;
10 [label="X[3] <= 4.235\nmse = 0.107\nsamples = 95\nvalue = 0.099"] ;
9 -> 10 ;
11 [label="mse = 0.097\nsamples = 77\nvalue = 0.047"] ;
10 -> 11 ;
12 [label="mse = 0.092\nsamples = 18\nvalue = 0.321"] ;
10 -> 12 ;
13 [label="X[2] <= 3.675\nmse = 0.105\nsamples = 64\nvalue = -0.169"] ;
9 -> 13 ;
14 [label="mse = 0.055\nsamples = 4\nvalue = -0.703"] ;
13 -> 14 ;
15 [label="mse = 0.088\nsamples = 60\nvalue = -0.134"] ;
13 -> 15 ;
16 [label="X[0] <= 37.5\nmse = 0.509\nsamples = 172\nvalue = 0.65"] ;
0 -> 16 [labeldistance=2.5, labelangle=-45, headlabel="False"] ;
17 [label="X[3] <= 10.0\nmse = 0.352\nsamples = 168\nvalue = 0.589"] ;
16 -> 17 ;
18 [label="X[3] <= 6.115\nmse = 0.171\nsamples = 165\nvalue = 0.547"] ;
17 -> 18 ;
19 [label="mse = 0.14\nsamples = 85\nvalue = 0.365"] ;
18 -> 19 ;
20 [label="mse = 0.132\nsamples = 80\nvalue = 0.739"] ;
18 -> 20 ;
21 [label="mse = 4.791\nsamples = 3\nvalue = 2.913"] ;
17 -> 21 ;
22 [label="mse = 0.305\nsamples = 4\nvalue = 3.228"] ;
16 -> 22 ;
}